Language model created by QuickLM on Sat Aug 13 04:31:44 EDT 2016
Copyright (c) 1996-2010 Carnegie Mellon University and Alexander I. Rudnicky

The model is in standard ARPA format, designed by Doug Paul while he was at MITRE.

The code that was used to produce this language model is available in Open Source.
Please visit http://www.speech.cs.cmu.edu/tools/ for more information

The (fixed) discount mass is 0.5. The backoffs are computed using the ratio method.
This model based on a corpus of 28 sentences and 30 words

\data\
ngram 1=30
ngram 2=56
ngram 3=28

\1-grams:
-0.7782 </s> -0.3010
-0.7782 <s> -0.2218
-2.2253 AHEAD -0.2218
-2.2253 BE -0.2218
-2.2253 BEHIND -0.2218
-2.2253 BEING -0.2218
-2.2253 BUT -0.2218
-2.2253 CAMERA -0.2218
-2.2253 CAR -0.2218
-2.2253 DID -0.2218
-2.2253 FIRST -0.2218
-2.2253 FRONT -0.2218
-2.2253 HOW -0.2218
-2.2253 IN -0.2218
-2.2253 INSIDE -0.2218
-2.2253 IS -0.2218
-2.2253 IT -0.2218
-2.2253 JARVIS -0.2218
-2.2253 LEFT -0.2218
-2.2253 NOW -0.2218
-2.2253 OF -0.2218
-2.2253 ON -0.2218
-2.2253 RIGHT -0.2218
-2.2253 SAY -0.2218
-2.2253 STOP -0.2218
-2.2253 THIS -0.2218
-2.2253 WHAT -0.2218
-2.2253 WHICH -0.2218
-2.2253 WITH -0.2218
-2.2253 WORK -0.2218

\2-grams:
-1.7482 <s> AHEAD 0.0000
-1.7482 <s> BE 0.0000
-1.7482 <s> BEHIND 0.0000
-1.7482 <s> BEING 0.0000
-1.7482 <s> BUT 0.0000
-1.7482 <s> CAMERA 0.0000
-1.7482 <s> CAR 0.0000
-1.7482 <s> DID 0.0000
-1.7482 <s> FIRST 0.0000
-1.7482 <s> FRONT 0.0000
-1.7482 <s> HOW 0.0000
-1.7482 <s> IN 0.0000
-1.7482 <s> INSIDE 0.0000
-1.7482 <s> IS 0.0000
-1.7482 <s> IT 0.0000
-1.7482 <s> JARVIS 0.0000
-1.7482 <s> LEFT 0.0000
-1.7482 <s> NOW 0.0000
-1.7482 <s> OF 0.0000
-1.7482 <s> ON 0.0000
-1.7482 <s> RIGHT 0.0000
-1.7482 <s> SAY 0.0000
-1.7482 <s> STOP 0.0000
-1.7482 <s> THIS 0.0000
-1.7482 <s> WHAT 0.0000
-1.7482 <s> WHICH 0.0000
-1.7482 <s> WITH 0.0000
-1.7482 <s> WORK 0.0000
-0.3010 AHEAD </s> -0.3010
-0.3010 BE </s> -0.3010
-0.3010 BEHIND </s> -0.3010
-0.3010 BEING </s> -0.3010
-0.3010 BUT </s> -0.3010
-0.3010 CAMERA </s> -0.3010
-0.3010 CAR </s> -0.3010
-0.3010 DID </s> -0.3010
-0.3010 FIRST </s> -0.3010
-0.3010 FRONT </s> -0.3010
-0.3010 HOW </s> -0.3010
-0.3010 IN </s> -0.3010
-0.3010 INSIDE </s> -0.3010
-0.3010 IS </s> -0.3010
-0.3010 IT </s> -0.3010
-0.3010 JARVIS </s> -0.3010
-0.3010 LEFT </s> -0.3010
-0.3010 NOW </s> -0.3010
-0.3010 OF </s> -0.3010
-0.3010 ON </s> -0.3010
-0.3010 RIGHT </s> -0.3010
-0.3010 SAY </s> -0.3010
-0.3010 STOP </s> -0.3010
-0.3010 THIS </s> -0.3010
-0.3010 WHAT </s> -0.3010
-0.3010 WHICH </s> -0.3010
-0.3010 WITH </s> -0.3010
-0.3010 WORK </s> -0.3010

\3-grams:
-0.3010 <s> AHEAD </s>
-0.3010 <s> BE </s>
-0.3010 <s> BEHIND </s>
-0.3010 <s> BEING </s>
-0.3010 <s> BUT </s>
-0.3010 <s> CAMERA </s>
-0.3010 <s> CAR </s>
-0.3010 <s> DID </s>
-0.3010 <s> FIRST </s>
-0.3010 <s> FRONT </s>
-0.3010 <s> HOW </s>
-0.3010 <s> IN </s>
-0.3010 <s> INSIDE </s>
-0.3010 <s> IS </s>
-0.3010 <s> IT </s>
-0.3010 <s> JARVIS </s>
-0.3010 <s> LEFT </s>
-0.3010 <s> NOW </s>
-0.3010 <s> OF </s>
-0.3010 <s> ON </s>
-0.3010 <s> RIGHT </s>
-0.3010 <s> SAY </s>
-0.3010 <s> STOP </s>
-0.3010 <s> THIS </s>
-0.3010 <s> WHAT </s>
-0.3010 <s> WHICH </s>
-0.3010 <s> WITH </s>
-0.3010 <s> WORK </s>

\end\
